<?xml version="1.0"?>
<opencv_storage>
<stage0>
  <maxWeakCount>7</maxWeakCount>
  <stageThreshold>4.2847552895545959e-01</stageThreshold>
  <weakClassifiers>
    <_>
      <internalNodes>
        0 -1 84176 1.4348279684782028e-02</internalNodes>
      <leafValues>
        -6.4184397459030151e-01 8.3027523756027222e-01</leafValues></_>
    <_>
      <internalNodes>
        0 -1 118922 -1.3022061437368393e-02</internalNodes>
      <leafValues>
        6.6050916910171509e-01 -7.9270535707473755e-01</leafValues></_>
    <_>
      <internalNodes>
        0 -1 98819 3.8448129780590534e-03</internalNodes>
      <leafValues>
        -5.4905778169631958e-01 9.1654145717620850e-01</leafValues></_>
    <_>
      <internalNodes>
        0 -1 69940 -1.2296721339225769e-02</internalNodes>
      <leafValues>
        6.1832964420318604e-01 -7.7656584978103638e-01</leafValues></_>
    <_>
      <internalNodes>
        0 -1 110819 1.3184713199734688e-02</internalNodes>
      <leafValues>
        -8.8611912727355957e-01 4.7801947593688965e-01</leafValues></_>
    <_>
      <internalNodes>
        0 -1 9856 -2.5707702661748044e-05</internalNodes>
      <leafValues>
        -1. 4.4398730993270874e-01</leafValues></_>
    <_>
      <internalNodes>
        0 -1 63261 2.9785062652081251e-03</internalNodes>
      <leafValues>
        -5.8146834373474121e-01 8.9969331026077271e-01</leafValues></_></weakClassifiers></stage0>
</opencv_storage>
