<?xml version="1.0"?>
<opencv_storage>
<stage1>
  <maxWeakCount>6</maxWeakCount>
  <stageThreshold>3.6145901679992676e-01</stageThreshold>
  <weakClassifiers>
    <_>
      <internalNodes>
        0 -1 9856 1.9390270608710125e-05</internalNodes>
      <leafValues>
        5.9489631652832031e-01 -1.</leafValues></_>
    <_>
      <internalNodes>
        0 -1 68325 4.0572118014097214e-03</internalNodes>
      <leafValues>
        -6.7938053607940674e-01 8.6619424819946289e-01</leafValues></_>
    <_>
      <internalNodes>
        0 -1 54129 1.6052067279815674e-02</internalNodes>
      <leafValues>
        -5.5288785696029663e-01 9.0797299146652222e-01</leafValues></_>
    <_>
      <internalNodes>
        0 -1 26388 1.1212041601538658e-02</internalNodes>
      <leafValues>
        5.3317189216613770e-01 -9.4807302951812744e-01</leafValues></_>
    <_>
      <internalNodes>
        0 -1 99280 -4.2361784726381302e-03</internalNodes>
      <leafValues>
        9.7587710618972778e-01 -4.5015594363212585e-01</leafValues></_>
    <_>
      <internalNodes>
        0 -1 108502 -6.5418691374361515e-03</internalNodes>
      <leafValues>
        9.6870982646942139e-01 -5.1021790504455566e-01</leafValues></_></weakClassifiers></stage1>
</opencv_storage>
